[{"conv1": {"weight": [-1.044473648071289, -1.6666545867919922, -0.049957383424043655, -1.2157343626022339, -0.019627299159765244, 0.2973117530345917, -1.8581833839416504, -0.7612299919128418, 0.9969955682754517, 0.4516293406486511, 0.44222012162208557, 0.7493075728416443, 0.15205338597297668, -0.5793418288230896, -0.3811781406402588, -1.6222573518753052, -1.2593483924865723, 0.18775223195552826, 0.8472447395324707, -1.0258874893188477, -2.075242280960083, 1.1578627824783325, 1.6157658100128174, -2.9661855697631836, -1.1451244354248047, -2.2186191082000732, -3.0129647254943848, 0.0383935421705246, -0.3894292116165161, -0.890902042388916, -0.49590083956718445, -0.9463923573493958, 0.2671836018562317, -1.6431962251663208, 0.2750556170940399, 0.7557188868522644, 1.2582978010177612, -1.646790862083435, -0.15002085268497467, 0.36475253105163574, -0.7018864750862122, -0.19825027883052826, 0.20490053296089172, -0.7424460053443909, -0.35652056336402893, -1.2566840648651123, -0.37928614020347595, -1.1538089513778687, 1.0391558408737183, -1.5156883001327515, -1.470455527305603, 0.19449183344841003, 0.40499261021614075, 0.8742961287498474, -1.7397148609161377, -1.4949977397918701, 1.4261778593063354, -2.310682535171509, -0.10195335745811462, 0.3435300588607788, -2.3390514850616455, -0.7840661406517029, -0.5312345027923584, -0.5387064814567566, -0.002066901419311762, -0.035405032336711884, 0.0007009323453530669, -0.08722914755344391, -0.08617532253265381, -0.3867863118648529, -0.5249789357185364, -0.14543837308883667], "bias": [-0.17200864851474762, -0.23812095820903778, -0.0025380251463502645, 0.5737089514732361, -0.0011065389262512326, -0.19980792701244354, -0.006276006810367107, -0.3655391037464142]}, "dw_conv2": {"depth_wise": {"weight": [-0.5520585179328918, -0.2678227722644806, 0.002116703661158681, -0.08606164157390594, -0.16030360758304596, -0.12796929478645325, -0.6689118146896362, -0.27295681834220886, -0.46826428174972534, -0.12571337819099426, -0.5947282910346985, -0.2226056158542633, -0.06791091710329056, -0.26412463188171387, -0.39825743436813354, -0.3973342478275299, -0.4564838409423828, -0.4803833067417145, -0.2629217505455017, -0.2307438999414444, -0.10433296114206314, -0.4237704575061798, -0.4245630204677582, -0.2752346098423004, -0.3862297534942627, -0.1277691125869751, -0.5546599626541138, -0.5745253562927246, -0.42449936270713806, -0.22523634135723114, 0.04362305626273155, 0.27596694231033325, 0.1787964403629303, 0.7618620991706848, 0.38682958483695984, 0.5239576101303101, 0.8890549540519714, 0.7561478018760681, 0.6375484466552734, -0.38536012172698975, -0.33326244354248047, -0.4313609302043915, -0.29995810985565186, -0.2991963326931, -0.3932074010372162, 0.17345382273197174, -0.09141556173563004, -0.8387542963027954, -0.1986525058746338, -0.3473007082939148, -0.7097070217132568, -0.0391041599214077, -0.049780525267124176, -0.25162366032600403, 0.4228579103946686, 0.48689165711402893, 0.47589972615242004, 0.042839497327804565, 0.11924310028553009, 0.26312223076820374, 0.3117316961288452, 0.519717276096344, 0.5100274682044983, -0.19599640369415283, 0.30500033497810364, 0.06443490833044052, -0.4432727098464966, 0.22583182156085968, -0.2058565467596054, -0.5990000367164612, -0.41195163130760193, -0.7452371716499329], "bias": [0.11769488453865051, 0.4605001211166382, 0.09339592605829239, -0.10357321798801422, -0.13369114696979523, 0.27412107586860657, -0.1482657641172409, 0.22685711085796356]}, "point_wise": {"weight": [-0.7009444832801819, 0.3967156708240509, 0.1253267228603363, -0.3273719847202301, 0.11575794219970703, 0.8484507203102112, 0.490928053855896, 0.14554011821746826, 0.1760255992412567, -0.6430302262306213, 0.20066902041435242, 0.14613987505435944, -0.02331703156232834, 0.7042695879936218, -1.0583288669586182, 0.8906965851783752, 0.8502606749534607, -0.7735026478767395, 0.9363784790039062, 0.4810367226600647, -0.37233206629753113, 0.12724725902080536, 0.09652859717607498, 0.4665713608264923, 1.8908945322036743, -0.5187668800354004, -0.25371018052101135, -0.14963437616825104, -0.18282762169837952, 0.3845742344856262, -2.42177677154541, 0.5936105847358704, -0.2003670632839203, 0.12365318089723587, -0.4756159782409668, -0.9034844040870667, 0.7469368577003479, 0.5828160047531128, -0.6458343863487244, 0.44752463698387146, 0.27188238501548767, 0.08550973981618881, -0.30514398217201233, 0.06412751972675323, 1.3930482864379883, 0.34890058636665344, -0.0823834091424942, -0.16672779619693756, 0.7344347238540649, -0.16164593398571014, 1.5312763452529907, -0.33731594681739807, 0.7402635812759399, -0.6299847364425659, -1.391130805015564, -0.6912426948547363, 0.09615390002727509, 0.9445826411247253, -0.6846230030059814, -0.9372568726539612, -0.10744235664606094, -0.3172673285007477, -0.4870818555355072, -0.16660115122795105, 1.9639958143234253, -0.694865345954895, 4.012636661529541, 0.013073017820715904, 0.7297658920288086, 0.5733670592308044, 0.47850295901298523, -0.2959769666194916, -0.19570405781269073, -0.11158601194620132, -0.730745255947113, 0.12990429997444153, 0.29823729395866394, -0.44263213872909546, 0.2683398127555847, -0.38290026783943176, 1.1348639726638794, 0.3900561034679413, 0.3407379984855652, -0.30834275484085083, -0.3695632219314575, -0.48151761293411255, -1.1511656045913696, -0.6093328595161438, -0.5034798979759216, 0.18153639137744904, 0.1190410628914833, 0.8316370844841003, 0.08249874413013458, 0.07389169931411743, -0.4385553300380707, -1.044702410697937, -0.28095757961273193, -0.49826565384864807, -0.3057316243648529, 0.1090715229511261, -0.03311504051089287, 0.8293913006782532, 0.15637478232383728, 0.2560351490974426, -0.26375287771224976, 0.21802867949008942, 1.616072654724121, -0.5069888234138489, 0.2930426597595215, 0.6560759544372559, 0.5228822827339172, -0.09949573129415512, 0.27958959341049194, 0.04095068201422691, 0.7236944437026978, -0.038129884749650955, 0.03954840824007988, 0.20715540647506714, 0.7327540516853333, 0.3154895007610321, 0.23040899634361267, -0.7513189911842346, 1.694753646850586, 0.21184886991977692, -0.0779176652431488, 0.7671749591827393, 0.26674601435661316, 0.3570726215839386], "bias": [-0.17088459432125092, -0.12873734533786774, -0.2012385129928589, -0.6062666177749634, -0.008937648497521877, -0.21774449944496155, -0.20504486560821533, 0.1955779641866684, -0.4291232228279114, -0.20615896582603455, -0.32280102372169495, -0.2966124713420868, -0.04042477905750275, -0.3207038342952728, 0.06858477741479874, -0.025122877210378647]}}, "dw_conv3": {"depth_wise": {"weight": [-0.5309978127479553, 0.2984243631362915, 1.2331081628799438, -0.2715182900428772, -0.13755939900875092, 0.1430400311946869, -0.2986093759536743, -0.6405341029167175, -0.4337600767612457, -1.061753273010254, -0.12164778262376785, -0.03530631214380264, -0.3014652132987976, -0.16324694454669952, 0.8270309567451477, -0.6604554653167725, -0.4833834767341614, 0.5566998720169067, -0.01841837354004383, -0.6487961411476135, -0.9947105646133423, -0.35494571924209595, 0.4857523739337921, -0.6760339736938477, 0.06651537865400314, 0.11416926980018616, 0.4641527831554413, -0.2685326635837555, 0.2564023435115814, 0.1376534253358841, -0.18819445371627808, -0.2688388526439667, 0.12401322275400162, -0.4559110105037689, 0.6288374066352844, 0.8347355127334595, -0.23126423358917236, 0.15264952182769775, 0.6791027784347534, -0.7039503455162048, 0.30656832456588745, 0.8706449866294861, -0.31995710730552673, -0.06177734211087227, -0.010183404199779034, -0.7674867510795593, 0.013900061137974262, -0.05034967139363289, -0.5089845061302185, 0.12547676265239716, -0.06897299736738205, -0.6561920046806335, -0.21191954612731934, -0.2402672916650772, 0.09357208758592606, 0.13303548097610474, -0.5932774543762207, 0.4011452794075012, 0.2797890305519104, -0.5190938711166382, 0.0032723168842494488, -0.4341733455657959, -1.1905862092971802, 0.3045438826084137, -0.4405171573162079, -1.2445323467254639, -0.05840142071247101, 0.5497612953186035, -0.35246580839157104, 0.2885129451751709, 0.20414796471595764, 0.03290156275033951, -0.04646202549338341, -0.0922829881310463, -0.42131587862968445, -0.13600175082683563, 0.03541012480854988, -0.34967488050460815, -0.12842795252799988, -0.41140443086624146, -0.9459463357925415, -0.08871887624263763, 0.2641828954219818, 0.3846808075904846, 0.44768890738487244, -0.10099068284034729, -0.5604164004325867, -0.06792184710502625, -0.34406977891921997, -0.7634864449501038, -0.5122755169868469, -0.35358723998069763, -0.9550634026527405, -0.3038688600063324, 0.06423816829919815, -0.14416126906871796, -0.3336007595062256, 0.4419461488723755, 0.4243469834327698, 0.23075848817825317, -0.6664592623710632, -0.43848806619644165, 0.739226758480072, 0.3426200747489929, -0.18778258562088013, 0.5559898018836975, 0.4129362106323242, 0.5833975076675415, 0.13222983479499817, -0.5740423202514648, -0.7667446136474609, 0.1987786740064621, 0.01493481732904911, -0.5190912485122681, 0.22438056766986847, 0.5557073950767517, 0.15669162571430206, 0.34467852115631104, -0.41067177057266235, -0.3661007881164551, -0.15240269899368286, -0.42242246866226196, 0.14421503245830536, -0.06101687252521515, -0.6662497520446777, -0.26363345980644226, -0.9480441808700562, -0.32650768756866455, -0.28794050216674805, 0.09775839745998383, -0.17919248342514038, -0.08097957819700241, 0.997008204460144, 0.5832542181015015, 0.05518211051821709, 1.5524295568466187, 0.12598146498203278, -0.4343709349632263, 0.12271063774824142, -0.2926568388938904, 0.02773091569542885, -0.5081174373626709, 0.11878055334091187, 0.19202739000320435], "bias": [-0.5141540765762329, -0.10738536715507507, 0.2226698249578476, 0.3818230926990509, 0.06297741085290909, 0.049329645931720734, -0.012759028933942318, -0.3870033621788025, -0.1347576528787613, -0.1687081903219223, 0.33748093247413635, 0.04455560818314552, 0.062234148383140564, -0.1859920769929886, 0.07386831194162369, -0.03439579904079437]}, "point_wise": {"weight": [-0.11211909353733063, 1.3536280393600464, 0.4498140811920166, -0.9583127498626709, 0.02380874752998352, 2.362595558166504, -0.423075795173645, -0.055565495043992996, -0.820313572883606, -0.37221890687942505, 0.8143569827079773, -1.8183372020721436, 0.1101955845952034, -0.6505853533744812, 0.28516340255737305, -0.20997337996959686, 1.0738006830215454, -0.10709184408187866, 0.7545084357261658, -1.5492626428604126, 1.1712037324905396, 0.21420025825500488, -0.19060514867305756, -0.45771750807762146, 0.13478729128837585, -0.09165512025356293, -0.3715040385723114, 0.38751330971717834, -0.08573838323354721, -0.40636518597602844, -0.02128465287387371, -0.7611627578735352, 0.25732913613319397, 0.9725095629692078, -0.019313234835863113, -0.8994940519332886, -0.4453285336494446, 0.26698288321495056, -0.26475703716278076, -0.16035239398479462, -0.5373938679695129, -0.7066155672073364, 0.2920798659324646, -1.9217675924301147, -0.5122525691986084, -0.7025415897369385, 0.4271177053451538, -0.8668959736824036, 0.9089352488517761, -0.26671141386032104, -0.441305935382843, -0.48905545473098755, 0.05020208656787872, -0.7324340343475342, 0.0951421856880188, 0.7637149691581726, 0.6050447225570679, 0.0859488993883133, -0.04870670288801193, 0.2021632194519043, -0.44125279784202576, -0.5048003196716309, -0.6824657917022705, -0.7744608521461487, 1.5472618341445923, 0.9061782956123352, 1.0468438863754272, 0.4889545738697052, -0.03008905053138733, 0.055318836122751236, 0.9462246298789978, -0.10394527018070221, 1.7552810907363892, 0.24551771581172943, 0.1722673773765564, -1.6973371505737305, -0.2654942274093628, 0.16098728775978088, -0.19097286462783813, -1.3057801723480225, 0.5762735605239868, -0.007921305485069752, -0.8366038799285889, 0.23089343309402466, -0.3782046139240265, 0.3293629288673401, 1.1661615371704102, 1.1953269243240356, -0.17451758682727814, 0.24505755305290222, -0.019111208617687225, 0.09514184296131134, -0.07309606671333313, -0.4944497048854828, -0.13561920821666718, 0.4090309739112854, -0.6648538708686829, -0.30142658948898315, -0.0008187753846868873, -1.738881230354309, -0.3150615990161896, -0.6621018648147583, 1.1647098064422607, 0.012396298348903656, 0.5788488984107971, -0.3591708242893219, 0.27698060870170593, 0.042435143142938614, 0.2580263018608093, -0.5017899870872498, 0.4345149099826813, 0.040297698229551315, -0.21605819463729858, 0.3500223755836487, 0.7129186987876892, 0.38178056478500366, -0.3211161494255066, 1.4992650747299194, -0.15232008695602417, -0.017476849257946014, 0.6596269607543945, -0.2125042825937271, -1.0121976137161255, -0.28620657324790955, 0.14773115515708923, 0.42456692457199097, -0.048591580241918564, -0.42858684062957764, -0.22126644849777222, 0.11067130416631699, 0.8822650909423828, -0.4845678508281708, -0.4458701014518738, 0.19127216935157776, -0.3142651319503784, 0.22813117504119873, -0.48082348704338074, 1.2159509658813477, -0.4812965393066406, 0.008250812999904156, 0.6807364225387573, 0.49488362669944763, -0.2688859701156616, 0.4964999854564667, 0.6983650922775269, -0.35044458508491516, 0.006162396632134914, -1.088498830795288, 0.45648226141929626, -0.16843777894973755, 0.7392874956130981, 0.2851026654243469, -0.3295865058898926, 0.5453184247016907, 0.5389295220375061, -0.7242127060890198, -0.7661594748497009, 0.2907004654407501, -0.9359818696975708, 0.3081569969654083, -0.08710942417383194, 1.1476082801818848, 0.5559718608856201, -1.0624750852584839, -0.027623934671282768, 0.47108912467956543, -0.15767918527126312, -0.031581100076436996, -0.3060607612133026, 0.08107423037290573, -0.6489154100418091, -0.5830585360527039, 0.6781535744667053, -0.19115658104419708, 0.6627742648124695, -0.05132843181490898, 1.0932223796844482, 0.3673897683620453, -0.8831880688667297, -1.429963231086731, -0.6616858839988708, -0.5835260152816772, -0.30513280630111694, 0.09055820852518082, 0.30910784006118774, -0.12933798134326935, 0.5908972024917603, 0.41096869111061096, -0.2967199385166168, 0.7561015486717224, -0.32894831895828247, -0.17532289028167725, -0.3737560212612152, 0.34032386541366577, 0.535000741481781, 0.24202638864517212, -0.18559803068637848, -0.6651992797851562, 0.09175344556570053, 0.5102484226226807, 0.10696441680192947, -0.08277324587106705, -0.33883562684059143, -1.2276456356048584, 0.5836227536201477, 2.432720422744751, 0.2349267303943634, -0.6265076398849487, 0.2939583659172058, 0.26491856575012207, -0.13308309018611908, -0.2679031789302826, 0.5442614555358887, 0.024569334462285042, 1.1476926803588867, 0.3580097258090973, -0.09382633119821548, 1.0179312229156494, -0.2551705837249756, -1.121353030204773, -0.19625596702098846, 0.10751160234212875, -1.0308560132980347, 0.4160635471343994, -0.45510390400886536, -0.24846403300762177, 0.16164498031139374, -0.03852825239300728, 0.659848690032959, 0.29561880230903625, -0.07989286631345749, -0.7052357196807861, 1.2426823377609253, -0.057977572083473206, -0.7976456880569458, 0.07730530947446823, 0.7633260488510132, -0.3926883339881897, 0.15368907153606415, -0.0009569216636009514, 0.13585828244686127, 0.35008832812309265, 0.9154491424560547, -0.20720137655735016, 0.32946598529815674, 2.6744730472564697, -0.5849500298500061, 0.20868343114852905, 0.8664332628250122, -0.13818161189556122, 0.3631758987903595, 0.34244707226753235, 0.9472174644470215, -0.08462268114089966, 0.3187553286552429, -0.7931259274482727, -0.3065311908721924, 0.5938299298286438, 0.7276562452316284, 0.47864893078804016, -0.09822792559862137, 1.0311518907546997, -0.3339870870113373, -0.2888840436935425, 0.20793260633945465, -0.5278621912002563, -0.675763726234436, 0.33279284834861755, 0.4142859876155853, 0.7894384264945984, -0.05234842374920845, -0.6874894499778748, 0.7145007252693176, -0.5390939712524414, -0.44981876015663147, -0.607556164264679, 0.33178141713142395, -0.08243140578269958, 1.4048658609390259, 1.0716603994369507, -0.17010244727134705, -0.31402888894081116, -0.885809600353241, -0.7488966584205627, 0.46502676606178284, -0.06734135001897812, 0.3569495677947998, -0.9993773102760315, -0.07057598233222961, 1.0391093492507935, -0.8485562205314636, -0.25605279207229614, -0.30756479501724243, 0.6559235453605652, 0.007969064638018608, 1.0759609937667847, -0.14411522448062897, -0.34156113862991333, 0.13718880712985992, -0.32099613547325134, -0.32093289494514465, 0.829527735710144, 0.13536708056926727, -0.7010771036148071, 0.25255081057548523, 0.3936735689640045, -0.15634921193122864, -0.5677759647369385, -0.3735218942165375, -0.18010345101356506, -0.5786449909210205, -0.06595336645841599, -0.028848757967352867, -0.3503739833831787, 0.8566029071807861, 0.4803355634212494, -0.2381395399570465, 0.8174050450325012, -0.01694510132074356, -0.11413688212633133, 0.20083987712860107, -0.4654773771762848, -0.6182664632797241, -0.5513678193092346, -0.1281179040670395, -0.46081027388572693, 0.3322150707244873, 0.26169195771217346, 0.4820612967014313, 0.16055089235305786, 0.44148939847946167, -0.037665825337171555, -0.5450119376182556, 0.2919522523880005, -0.25018781423568726, 0.4509996771812439, 0.2148166000843048, 0.7680540680885315, 0.6043177843093872, -0.3548688590526581, 1.1091666221618652, 1.666213035583496, 0.257747083902359, -0.14975523948669434, 0.14630119502544403, 0.4084476828575134, -0.5065509080886841, 0.08188150078058243, -0.46946772933006287, -0.6787682771682739, 0.2171235978603363, -0.7650874257087708, 0.8181207776069641, -0.4065881073474884, 0.3975779414176941, 0.28939059376716614, 0.4964260160923004, -0.15914566814899445, 0.3992122709751129, 0.15550491213798523, -0.3702314794063568, 0.1986377239227295, -0.23667767643928528, -1.8154414892196655, 0.18179136514663696, 0.1300787627696991, -0.13755382597446442, -0.7553155422210693, 0.35476192831993103, 1.0153642892837524, -0.16554124653339386, -0.36278674006462097, 0.4724308252334595, 2.47495174407959, 0.4481675922870636, 0.36533260345458984, 0.08473966270685196, 0.1267463117837906, -0.5457764863967896, 0.03895048052072525, -0.3908715546131134, -0.41774970293045044, -1.0240451097488403, 0.195334330201149, 0.6659581065177917, -0.5678926110267639, -0.5508220195770264, 0.20968322455883026, -0.645788848400116, 0.10045546293258667, -0.205292746424675, 0.2587476968765259, -0.1696951985359192, -0.7036567330360413, -0.4519818425178528, -1.9281362295150757, -0.3575153946876526, 0.08995597064495087, -0.5615023374557495, -0.5901172757148743, 0.31287503242492676, 0.7986668944358826, 0.42812755703926086, -0.4298578202724457, 0.19058910012245178, 2.9059813022613525, -0.22799962759017944, -0.1538965255022049, 1.7429983615875244, -0.5220636129379272, 0.14939860999584198, 0.6158029437065125, 0.09788935631513596, -0.30904069542884827, 0.2782548666000366, -0.3788960874080658, -0.4033283591270447, 0.013443773612380028, -0.4054986238479614, 0.40203848481178284, 0.29453593492507935, -0.5225573182106018, 0.23412589728832245, 0.9085216522216797, 0.08399792015552521, -0.11621519923210144, -0.1809399276971817, -2.3593060970306396, -0.5492751002311707, 0.9432829022407532, -0.20130769908428192, -0.03955322131514549, 0.6341986060142517, -0.2475980967283249, 0.3241874873638153, -0.45482197403907776, -0.5567654967308044, -0.028758980333805084, 0.9463465213775635, -0.019287697970867157, 0.5924906730651855, -0.4709843397140503, -1.2580879926681519, 0.23239898681640625, 1.0827374458312988, 0.12140750139951706, 0.224755197763443, -0.7253298759460449, 0.8087910413742065, 0.3562903106212616, 0.17581099271774292, 0.24822333455085754, 0.5104976892471313, -0.7140817046165466, -0.3842335045337677, -0.5624516606330872, 0.7689341306686401, 0.28364118933677673, 0.20177924633026123, -1.2210618257522583, 0.30482563376426697, 0.28430455923080444, -0.8059622645378113, -1.0013327598571777, 0.4583737254142761, -0.3659467101097107, 0.31723859906196594, -0.514593780040741, 0.855528712272644, -0.16360090672969818, -0.6452532410621643, -0.2844083905220032, 0.3104991018772125, -0.04666779935359955, 0.17555275559425354, -1.549601435661316, -0.362985759973526, 1.364978551864624, 0.7218039035797119, -0.6824144721031189, 0.22813497483730316, -0.5700640678405762, 0.9646105170249939, -0.31163522601127625, -0.7608293294906616, 0.5654863715171814, 1.7540003061294556, 0.8450524210929871, 0.2757734954357147, -0.12055177986621857, -0.09963008016347885, 0.6706128120422363, 0.1339007169008255, 0.12655405700206757, -1.2676364183425903, -0.33516108989715576, -0.34841734170913696, -0.33081910014152527, 0.21496173739433289, 0.7051581144332886, 0.15183596312999725, 0.08654002100229263, 1.1697261333465576, 0.15283061563968658, 1.8477805852890015, -0.623175859451294, -0.03892635926604271, -0.16407731175422668, 0.15865501761436462, 0.4132840931415558, 0.046281080693006516, 0.05417804419994354], "bias": [-0.4643971025943756, -0.28907108306884766, 0.1880849152803421, 0.047729477286338806, -0.2441106140613556, -0.3108629286289215, -0.35123878717422485, 0.10837898403406143, -0.01065001916140318, -0.21603170037269592, 0.06353431940078735, -0.6551617980003357, -0.36490756273269653, -0.0219428613781929, 0.021766062825918198, -0.3480210304260254, -0.18251530826091766, 0.33475443720817566, 0.09821020811796188, -0.23314188420772552, -0.4420608580112457, -0.3850882649421692, -0.2587778568267822, 0.3215474784374237, 0.17200776934623718, -0.11759798228740692, 0.133636012673378, -0.26724472641944885, 0.07018362730741501, -0.2971917390823364, -0.09556397050619125, -0.5225412845611572]}}, "dw_conv4": {"depth_wise": {"weight": [0.26809149980545044, -0.29633843898773193, -0.06169957295060158, -1.2108113765716553, -0.0034756173845380545, -0.25848403573036194, -0.7506672739982605, 0.4975048005580902, -0.43807730078697205, -0.6189252138137817, 0.24558202922344208, 0.02705908939242363, 0.6122928261756897, -0.05236264690756798, -0.022162871435284615, 0.04266471788287163, 1.0269615650177002, 0.8351665735244751, -0.9454525709152222, 0.20344147086143494, -0.3385252058506012, -0.7652105689048767, 0.3332099914550781, -0.19531039893627167, 0.681054413318634, 0.5269566774368286, 0.14011365175247192, -0.7711783051490784, -0.839168906211853, -0.7045450210571289, 0.6871485710144043, -0.04343452677130699, 0.9080773591995239, -0.19072338938713074, -0.09378505498170853, -0.2034083753824234, 1.2440123558044434, -0.0138376010581851, 1.4471865892410278, 0.01462606806308031, 0.13459008932113647, 0.666838526725769, -0.8546332716941833, -0.2503467798233032, -0.26356613636016846, 0.014589429832994938, -0.35115963220596313, -1.3467375040054321, 0.5153485536575317, 0.13285014033317566, -0.9700887799263, -1.0044517517089844, -0.030919814482331276, 0.4791148900985718, -0.27212175726890564, 0.18583185970783234, -0.09976892173290253, -0.20773018896579742, 0.1809760183095932, -0.08444537967443466, -0.7596325278282166, -0.40547841787338257, -0.894676685333252, 1.657614827156067, 1.4583123922348022, 0.7039531469345093, -0.6261146664619446, 0.19862879812717438, -0.6474301815032959, 1.1091504096984863, -0.005654469132423401, -0.3487999141216278, -0.05881847068667412, 0.6549292206764221, -1.5548639297485352, -0.23856346309185028, -0.012818949297070503, -0.8838575482368469, 0.27534690499305725, 0.16470998525619507, -0.9820571541786194, -0.34523752331733704, -0.01411493681371212, 0.9771679639816284, -0.03527909517288208, 0.5374975800514221, 0.11070194840431213, 1.3301624059677124, 0.15147630870342255, 0.1080317273736, 0.5714746713638306, 0.031227631494402885, 0.5682315826416016, -1.420230507850647, 0.4843790531158447, -0.8814705610275269, 1.5378859043121338, -0.1136360839009285, -0.2610816955566406, 0.31851837038993835, 0.3862335979938507, -1.0471723079681396, -0.20431724190711975, -1.194349765777588, 0.12216121703386307, -0.7525539398193359, -0.474969744682312, -0.23659181594848633, 1.7226860523223877, 0.12660183012485504, -0.021036123856902122, 1.3054749965667725, 0.30689406394958496, 0.4895191192626953, 0.23469680547714233, -0.021392032504081726, -0.2895134687423706, 1.2832324504852295, -0.0069152782671153545, -0.07510757446289062, -1.2456945180892944, -1.0636605024337769, -0.26419055461883545, 1.204485535621643, 0.7355489134788513, 0.8807958960533142, 1.0087690353393555, -0.2784663140773773, 1.3964470624923706, -0.4825800359249115, -0.28341686725616455, 0.3581693470478058, -0.4025726318359375, -0.4040333032608032, -0.2631751596927643, 0.2585296034812927, -2.041926860809326, -1.2655417919158936, 0.056821245700120926, -0.11230964213609695, 0.042966850101947784, -0.18793632090091705, 0.3963305652141571, -0.26401180028915405, -0.29133376479148865, -0.6529673337936401, 1.1324872970581055, -1.3526006937026978, -1.8374377489089966, -0.6788997650146484, 0.24098168313503265, 0.6323294639587402, -0.5948082804679871, 0.019349563866853714, -0.5304291248321533, -0.17775213718414307, 0.8045002818107605, -0.5677537322044373, 0.5562265515327454, 0.014312135055661201, -0.49531325697898865, -1.0778645277023315, -0.35019636154174805, -1.1241374015808105, 1.36419677734375, -0.19301612675189972, 0.14003930985927582, 0.6562691926956177, 0.6769771575927734, -0.4618314206600189, -1.143486738204956, 0.2346593290567398, -0.8839754462242126, 0.14549557864665985, 1.6696765422821045, -0.5539048910140991, -1.011443018913269, 0.17008629441261292, 0.336646169424057, -0.7871323227882385, -1.057496428489685, 0.2841751277446747, 0.4550527334213257, -0.19952598214149475, -0.5246838331222534, 0.28842273354530334, 0.32958969473838806, -0.15276692807674408, -1.471590280532837, -1.1772352457046509, -0.6833527088165283, -0.32305705547332764, 0.11846168339252472, -1.077184796333313, -0.18870358169078827, 0.3525097072124481, 0.37404540181159973, -0.4199489951133728, 0.007887005805969238, 0.5508343577384949, 0.7000724673271179, -0.2622518241405487, -0.3322000503540039, -0.03445785492658615, 1.6475359201431274, -0.20903795957565308, -0.04669271409511566, 0.9206722974777222, -0.42208054661750793, 0.6133760213851929, 0.8779162764549255, -0.3075891435146332, 0.16942064464092255, 0.4281902313232422, -0.6136132478713989, 0.2659173309803009, -0.6170796155929565, -0.6201909780502319, -0.2021927833557129, 0.562287449836731, -0.7339909076690674, -0.06596273928880692, 1.1334515810012817, -0.4554618299007416, 0.1028081476688385, -2.639711618423462, 0.5595061779022217, 0.09087572991847992, 1.1488025188446045, 0.4791831970214844, 0.012813553214073181, -1.0802162885665894, 0.05032844841480255, -0.3055956959724426, 0.2944667935371399, -0.6603145003318787, -0.8836422562599182, 0.7793035507202148, 0.5819289684295654, 0.5031583905220032, -0.04632590711116791, 0.24000222980976105, -0.9433597326278687, 1.0734727382659912, -0.5869344472885132, -1.920837640762329, -0.29661521315574646, -0.7528436779975891, -0.020466038957238197, -0.40029293298721313, 0.2923896312713623, 0.062220051884651184, 0.37596869468688965, -0.08891980350017548, -0.6118397116661072, 0.43909627199172974, 0.47694647312164307, 0.545983076095581, 0.8451941013336182, 0.06927064806222916, 0.5254067182540894, 1.236059308052063, -0.21222905814647675, 0.6201916337013245, -0.09559745341539383, -0.15593239665031433, 1.0203558206558228, -0.277814120054245, 0.08692750334739685, -0.5558310151100159, 0.1246466115117073, -0.011068922467529774, 1.346980094909668, -0.38458025455474854, -0.21978196501731873, 0.6572562456130981, -1.0176479816436768, 0.4211595952510834, 0.004845320247113705, 0.3999830186367035, -0.28298330307006836, -0.16115373373031616, -0.1168864518404007, 0.11896371841430664, -0.11019355803728104, 0.3205430507659912, 0.35445138812065125, 1.219254732131958], "bias": [-0.09771104156970978, -0.5713160037994385, 0.21922294795513153, 0.24131545424461365, -0.01789521984755993, -0.1307639181613922, 0.07423406094312668, 0.20650523900985718, -0.3306296467781067, 0.08211525529623032, -0.24830129742622375, -0.10021807998418808, 0.3416851758956909, 0.37607669830322266, 0.39778509736061096, -0.331186980009079, -0.022066978737711906, -0.18949449062347412, -0.033474184572696686, -0.26827552914619446, -0.2126055657863617, -0.09053198248147964, -0.22469574213027954, 0.3013053834438324, 0.26504090428352356, 0.001025018049404025, 0.32268646359443665, 0.09630237519741058, 0.23042912781238556, 0.34887954592704773, 0.2923493981361389, 0.03925889730453491]}, "point_wise": {"weight": [0.7309737801551819, -0.4296068847179413, 0.18669253587722778, -0.40654557943344116, -0.2473141849040985, 0.7447646260261536, 0.4942294955253601, -0.1926632523536682, 1.0579060316085815, -0.7230966687202454, -0.0873030349612236, 0.2403421401977539, -0.5279508233070374, 0.632620632648468, -0.29254719614982605, 0.7844085693359375, 0.46308791637420654, 0.04237674921751022, 0.30005863308906555, 0.12301747500896454, -0.04491453617811203, 0.5712845325469971, -0.11367631703615189, -0.12523791193962097, 0.34570974111557007, 0.1248304545879364, -0.6396687626838684, 0.07753550261259079, -1.7754985094070435, -0.08924204111099243, -0.14096274971961975, -1.1218349933624268, -0.33420267701148987, -0.4274759888648987, 0.7358584403991699, 1.2390022277832031, -0.5053009390830994, 1.1204471588134766, 2.049124240875244, 0.49914297461509705, 0.7198431491851807, -0.4224736988544464, 0.004954804200679064, 0.23486338555812836, -0.35709401965141296, -0.16123926639556885, -0.2914632260799408, 0.3631535768508911, 0.3991641402244568, 1.544832468032837, -0.646144449710846, -0.3377842605113983, 0.9207377433776855, 1.1389790773391724, -1.7161533832550049, -0.9805063605308533, 1.0549179315567017, 0.3096505105495453, 0.19493943452835083, -0.05877026170492172, 0.22269371151924133, -1.1768163442611694, 0.7962666749954224, -2.0152952671051025, 0.5888752937316895, -0.4976041316986084, 0.0990154892206192, -0.050365034490823746, -0.23712819814682007, 1.258042812347412, -0.009977181442081928, -0.2770550549030304, 0.9282246232032776, 0.19332122802734375, -0.2828536033630371, 1.544914722442627, -0.9764035940170288, -0.6369446516036987, -0.2345835119485855, 0.262035608291626, 0.4188644289970398, 0.13281556963920593, 0.659965455532074, 0.1765381544828415, 0.09658154845237732, 0.20709170401096344, -0.4771888256072998, -1.350124478340149, -0.4156036078929901, 0.24329566955566406, -0.22076894342899323, 0.457699179649353, 0.07034579664468765, 0.3326527178287506, 0.05203878507018089, -0.9697016477584839, 0.6445741057395935, -0.768659234046936, -0.18883956968784332, -0.6029351353645325, 0.21407584846019745, 0.6992171406745911, 0.6580674648284912, -0.3687427341938019, -0.014385835267603397, -0.9920910596847534, -0.11508195102214813, 0.9872167110443115, -1.0732852220535278, -0.17142704129219055, -0.12463291734457016, 0.8237575888633728, 0.5897894501686096, 0.5456829071044922, 0.607344925403595, -0.013910945504903793, 1.2330522537231445, 0.26026397943496704, 0.6442070603370667, 0.7186382412910461, -0.07468494772911072, 0.6822065711021423, 0.4932423233985901, 0.3339022994041443, 0.06576355546712875, -0.5060825347900391, -0.2782507538795471, -1.1523054838180542, 1.4529547691345215, -1.0461455583572388, 0.43232274055480957, 0.8776069283485413, 0.3315541744232178, 0.5038660168647766, -0.20871224999427795, -0.1882808804512024, 0.4337901771068573, -0.8002241849899292, 0.1436721533536911, 0.533602774143219, -0.6820564270019531, 0.10393500328063965, -0.3940978944301605, 0.39764404296875, 0.5333861708641052, 0.42896002531051636, -0.26378709077835083, -0.17887955904006958, -0.06877715140581131, 0.517021894454956, -0.7426151633262634, -1.153428316116333, -0.02869177795946598, 1.2199227809906006, -0.3906417191028595, 2.6562464237213135, -0.9062914848327637, 0.5679969191551208, -0.13937222957611084, 0.36633962392807007, 1.2526823282241821, -0.3269561231136322, 0.16867230832576752, -0.6514800190925598, 0.5350773334503174, -0.5182297825813293, 1.6640868186950684, -0.4891151189804077, 0.13633006811141968, 0.105000339448452, -0.540341317653656, 1.4723427295684814, -0.8158118724822998, -0.5471795201301575, -1.0311460494995117, 0.9140300750732422, 0.38537877798080444, 0.05240395665168762, -0.3182218372821808, 0.5416271686553955, 0.967501163482666, 0.08483991771936417, -1.4930181503295898, -0.6075938940048218, 1.0578794479370117, -0.33420613408088684, 0.33421313762664795, 0.509576141834259, -0.31093165278434753, -0.46447470784187317, 0.5988214015960693, -1.4890916347503662, -0.030581120401620865, -0.6056287288665771, 0.09031618386507034, 0.9032770395278931, -0.3687089681625366, 1.1507596969604492, 1.5182139873504639, 0.18825747072696686, 1.162766695022583, -0.47079378366470337, 0.22939381003379822, 0.44814783334732056, -0.7440149188041687, -0.2540057599544525, 0.018089845776557922, -0.141980841755867, 0.2616294026374817, -0.27157658338546753, -0.41154754161834717, 0.18698541820049286, 1.2735278606414795, 1.0247303247451782, -0.5424342155456543, -0.7600147128105164, 0.43928876519203186, 0.6239455938339233, 0.04692830517888069, 1.124072551727295, -0.4814223349094391, -0.7402077317237854, 0.266662061214447, 0.4290582537651062, 1.4159671068191528, -0.07488210499286652, -0.6310588717460632, -0.2348613142967224, 0.36484262347221375, 0.8797834515571594, 1.0755078792572021, -0.9313420057296753, -0.4085714817047119, -0.281203955411911, -0.37302863597869873, 0.6291038990020752, -1.1184628009796143, 0.3949083685874939, -0.2628711760044098, 0.12920795381069183, 0.8269344568252563, 0.8217676281929016, 0.9241010546684265, -0.9036661982536316, 0.8652392029762268, -0.2733754515647888, -0.31258419156074524, -1.5863621234893799, -0.36475738883018494, 1.3440091609954834, 0.2122950702905655, 0.3731609880924225, 0.10918906331062317, -0.5203171968460083, -0.40617451071739197, -0.19634932279586792, 0.8151234984397888, -1.5428005456924438, -0.0842619463801384, 0.035546477884054184, 0.18861354887485504, 1.8265392780303955, -0.10536809265613556, -0.22004425525665283, 0.7804854512214661, -0.7706199884414673, -0.8940979838371277, 1.0467007160186768, -0.2212620973587036, -0.03493540361523628, -0.25335538387298584, 1.2664276361465454, 0.20630769431591034, 0.49999386072158813, -0.05760107561945915, 0.14447243511676788, 0.7640897631645203, -0.25944554805755615, -1.4312852621078491, -0.10453163832426071, 0.26559531688690186, -0.2995516359806061, -0.3422577977180481, 0.21175137162208557, -0.4124561548233032, -0.4218059778213501, 0.14671757817268372, 0.14199741184711456, 0.38449326157569885, -0.861504077911377, 0.13667945563793182, 1.7364999055862427, -0.3804057538509369, 1.3696668148040771, 2.4762837886810303, -0.18176613748073578, 1.1648575067520142, -1.3880629539489746, 0.029096251353621483, 0.8004094958305359, -0.5493134260177612, 0.3861064314842224, 0.6503981947898865, 0.5333232283592224, 0.6219294667243958, 0.4535382390022278, 0.19079376757144928, 0.1851590871810913, 0.16508032381534576, 1.6680442094802856, 0.3363387882709503, -0.17498399317264557, -0.12317468971014023, 0.9545027613639832, 0.6829989552497864, -0.3422528803348541, -0.006644741166383028, -1.4816195964813232, 0.391865074634552, 0.2084183394908905, 0.39791199564933777, -1.1806224584579468, 0.7299640774726868, -0.44963371753692627, -0.9198615550994873, -0.4113822877407074, 0.5127586722373962, -1.2157526016235352, 0.4210120141506195, -0.6669957637786865, 0.39459484815597534, 0.736691951751709, -2.069265842437744, 0.4183880686759949, -0.9616180658340454, 1.2831240892410278, 0.17949070036411285, 0.6994897127151489, 0.574277400970459, -1.0355110168457031, 0.4869932532310486, 1.6428896188735962, -0.016253948211669922, 0.5022595524787903, 0.3608647882938385, 1.0307615995407104, 1.243259072303772, 0.834636390209198, -1.1344971656799316, -1.4609959125518799, -0.00852170679718256, -1.2642836570739746, 1.0640698671340942, -0.8060534000396729, -0.007974895648658276, 0.502560555934906, -0.17843154072761536, 0.08021917194128036, -0.2824843227863312, -0.5714956521987915, -0.5320978760719299, 0.0046456982381641865, -0.826758861541748, 0.4094347059726715, -0.43279802799224854, -0.362851619720459, 0.48046332597732544, -0.07690109312534332, 0.8589586615562439, 0.21697399020195007, -0.03590709716081619, 0.39394667744636536, 0.8311675786972046, 0.7415034770965576, -0.07694268226623535, -1.7413835525512695, 1.1809841394424438, 0.9428650736808777, 0.114494688808918, 0.5679061412811279, -0.594754159450531, 0.11843308061361313, -0.07905799150466919, -0.9534502029418945, 1.0672457218170166, 0.16898269951343536, -0.6724418997764587, 0.11147774755954742, 0.3776681423187256, 0.1086488589644432, 0.8748712539672852, -0.5014324188232422, 0.10806593298912048, -0.2811793088912964, -0.1280290186405182, 0.1413499116897583, -0.10251981019973755, 0.08423960208892822, -0.37447527050971985, 1.416524887084961, 1.2366377115249634, -0.14159034192562103, -0.23215611279010773, 0.08856399357318878, 1.5463073253631592, 1.024764895439148, 0.3279038965702057, -1.2622443437576294, -0.046769194304943085, 0.9237496256828308, -0.019147977232933044, 0.6479365229606628, 0.1953125149011612, -0.013410160318017006, 0.5471664071083069, -1.460374116897583, 0.5347314476966858, -1.2938511371612549, -0.0442890003323555, 1.2088655233383179, -0.7900192737579346, 0.04731689766049385, 0.8377960324287415, 0.5510334968566895, 0.6941049098968506, -0.7890400886535645, -1.5040767192840576, 1.2570228576660156, -0.6893311738967896, -0.6937130689620972, -0.5056567788124084, 0.21523697674274445, 0.4618745446205139, 0.11653194576501846, -0.1641550213098526, 0.6489541530609131, 1.5199416875839233, 0.5348030924797058, 0.11771036684513092, -0.5297669172286987, 1.0148160457611084, 1.273723840713501, 0.11508455127477646, -0.1803559809923172, -1.2537603378295898, -0.5879389643669128, -0.3315613269805908, 0.026942234486341476, 1.5688629150390625, 0.2979705035686493, 0.38252416253089905, -0.46163153648376465, -0.4858173727989197, 1.1157828569412231, -0.004286753013730049, -0.960473895072937, -0.42273789644241333, -0.9736068844795227, -0.4871322214603424, 0.15401645004749298, -0.38863521814346313, -0.8613120317459106, -0.9417588710784912, 0.14005503058433533, 0.16401347517967224, -0.3520906865596771, -0.2621787190437317, 0.24217025935649872, 0.06593527644872665, 1.123634696006775, -1.1730879545211792, -0.8784817457199097, 0.5176880359649658, 2.8309295177459717, 0.029164133593440056, 0.7609060406684875, -0.45989441871643066, -0.7214775681495667, -0.6723836660385132, -0.7990968227386475, 0.9465067386627197, -1.624651551246643, -0.52717524766922, 0.029202498495578766, -1.1228561401367188, 0.5841054916381836, 1.3911458253860474, -0.42147260904312134, 1.949133038520813, -1.1160236597061157, -0.2993060052394867, 0.9609962105751038, 0.1242629662156105, 0.10111348330974579, -0.9762666821479797, -0.05463472753763199, 0.5956695675849915, 0.015657810494303703, 0.795328676700592, 0.5895814299583435, 1.2795213460922241, 1.2358283996582031, 0.6201226115226746, -1.8139617443084717, 0.26504966616630554, 1.0676449537277222, 0.9381110072135925, -0.0798676535487175, -0.21035805344581604, 0.29005828499794006, 0.01402728259563446, 0.05757683888077736, -0.21734796464443207, -0.09932827204465866, 0.27969157695770264, 0.4712664783000946, -0.2521897256374359, 0.4545637369155884, 0.7398448586463928, -0.3271608054637909, 0.5862465500831604, -0.19382409751415253, 0.6615796089172363, 0.553754448890686, 0.17234452068805695, 0.37207913398742676, -0.2483460158109665, 1.0739635229110718, 0.28207913041114807, 0.2636275887489319, 0.026022853329777718, -0.7724652290344238, 1.3210119009017944, 0.5797045826911926, -0.7639669179916382, -0.9779896140098572, 0.04483577236533165, 1.1747292280197144, 0.19178976118564606, 0.827873945236206, -0.37100762128829956, 0.22480884194374084, 0.21492761373519897, -1.898189663887024, 0.7725210785865784, -0.10021647065877914, -0.2218569815158844, 1.0943225622177124, 0.19916494190692902, 0.2262178361415863, 0.7071868181228638, -0.287634938955307, -0.3510894179344177, -0.7318716049194336, -0.3964122533798218, 0.5550460815429688, -0.6141372919082642, -0.1628502607345581, 0.30813083052635193, 0.2851085960865021, 1.1970993280410767, 0.021216418594121933, -0.7235414981842041, -0.1000925749540329, 0.7329232096672058, -0.4043756127357483, -1.091335654258728, -0.7015254497528076, -0.042524971067905426, 0.7976400852203369, -0.17509125173091888, -0.24077270925045013, -0.07689915597438812, -0.6497843265533447, -0.7716955542564392, -1.173215389251709, -0.07721007615327835, -1.3894046545028687, 0.22434170544147491, 0.3668786287307739, -0.0962194874882698, -0.07427682727575302, 0.3662399351596832, -0.9853713512420654, 2.0661590099334717, -1.0056697130203247, -0.07971584051847458, 1.3039101362228394, -1.1293551921844482, -0.3442324995994568, -0.8722408413887024, -0.1359676569700241, 0.052731703966856, 0.599892258644104, 0.17547613382339478, -0.130896657705307, 1.9799458980560303, 1.76996910572052, -1.5839316844940186, -0.9251442551612854, 0.378448486328125, -0.5381066799163818, 0.5853373408317566, 0.0652279406785965, -0.9800451993942261, -0.868335485458374, 0.5121066570281982, 0.2603234648704529, 0.6146395802497864, -0.32677924633026123, -0.6778889894485474, 0.4398799538612366, -0.21997548639774323, 0.49723562598228455, -0.13880741596221924, -0.2648290991783142, -0.21044906973838806, -1.210579514503479, -0.6847925186157227, 1.3826357126235962, -0.5062548518180847, 0.26133134961128235, -0.3697105050086975, -0.05198579654097557, 1.0459084510803223, -0.178883895277977, 0.4568350911140442, -0.3260197043418884, 0.951623260974884, 0.07792188972234726, -0.41446587443351746, 0.8102281093597412, 0.8489392399787903, 0.1635664850473404, -0.34864550828933716, 0.6666789650917053, -1.056518793106079, -0.7567543387413025, -0.0417855866253376, -0.711715579032898, 0.8757413625717163, 0.2220461517572403, 0.3681221902370453, -0.042598046362400055, 0.644677996635437, -0.31458815932273865, -0.013880506157875061, -0.7493194937705994, -0.25755834579467773, -0.5984600782394409, 1.085795283317566, 1.0130319595336914, -0.9382598400115967, -0.6468551754951477, -0.24862459301948547, 1.7080894708633423, 1.372742772102356, 0.4233807325363159, -0.2942039370536804, 0.11239171028137207, -0.08979504555463791, 0.5398467779159546, -0.18256747722625732, -0.9338151216506958, 0.4969671070575714, 1.5668731927871704, -0.08061720430850983, 1.2344322204589844, -0.7574502825737, -0.9441904425621033, 0.04365997761487961, -2.3429179191589355, -0.031609755009412766, -0.7624807953834534, -0.2958507537841797, 0.6359193921089172, -0.7769598364830017, 0.4076807498931885, 0.09173893183469772, -0.21444283425807953, 0.6281492114067078, -1.8504528999328613, 0.17022943496704102, 0.47062796354293823, 0.046133287250995636, 0.38188397884368896, -0.04039200395345688, 1.0973877906799316, -0.06513570249080658, -0.18307551741600037, 1.0918450355529785, -0.48556846380233765, 1.5993216037750244, -0.18434001505374908, -0.14891070127487183, -0.5100146532058716, 0.16946493089199066, -0.26446375250816345, -0.33355027437210083, 1.0813266038894653, -0.23519061505794525, -0.541400671005249, -0.5848990678787231, -3.891206979751587, 0.2921030819416046, -0.6765459775924683, 0.17702732980251312, 0.4493471086025238, 0.1814180463552475, 0.1412673145532608, 0.5063560009002686, -0.1501302868127823, 0.22995559871196747, -0.3475049138069153, -0.33213943243026733, 0.3122493326663971, -0.08580246567726135, 0.1585838943719864, 0.3462858498096466, 0.05021921545267105, 0.28152066469192505, 0.041805777698755264, 0.13783206045627594, -0.16924907267093658, 0.17885896563529968, 0.2830827832221985, -0.3533993363380432, -0.0930435061454773, 0.14810305833816528, 0.24759888648986816, 0.09302106499671936, 0.4115675985813141, -0.0879126638174057, -0.09895206987857819, 0.14934293925762177, -0.25802895426750183, -0.1402253359556198, -0.1813560575246811, 0.4486762285232544, 0.9696210622787476, -0.6203280091285706, 0.5803899168968201, 0.2318631410598755, -0.16341102123260498, 0.24946756660938263, -1.2430779933929443, 0.5085825324058533, 1.5139644145965576, -1.320404291152954, -0.10947206616401672, -0.4135023057460785, -0.1469428539276123, 0.731408417224884, 1.0202529430389404, 0.3776470124721527, -0.289212167263031, 0.7687379717826843, -0.167982816696167, 0.12922623753547668, -0.6742827892303467, -0.14942891895771027, 1.0845280885696411, 0.3048524856567383, 0.3845982551574707, -1.0797317028045654, -0.703400731086731, -0.3194311261177063, -2.183271646499634, 0.9257484674453735, -0.02387494593858719, 0.01660761423408985, -0.30965229868888855, 0.43060770630836487, 1.3962442874908447, 0.9309343099594116, -1.2612766027450562, -0.2795672118663788, -0.7582474946975708, -0.7503963708877563, 0.9297803044319153, -0.7977451086044312, 0.05724652484059334, 0.6147846579551697, 1.0650644302368164, 0.3283441364765167, 1.436798334121704, -0.6493223905563354, -0.7913268804550171, -0.19600211083889008, 0.5832394361495972, -0.188014954328537, -0.13122062385082245, 0.4829486310482025, 0.9470934867858887, 0.36350834369659424, 0.05068616941571236, 0.5134056806564331, -0.52821946144104, -1.3631460666656494, -2.5401127338409424, 0.4820888638496399, -0.3561726212501526, 0.4515542685985565, -0.7548481225967407, -0.3342539370059967, 0.2096623182296753, 0.47763311862945557, -0.2067926973104477, 0.0058150514960289, -0.9328521490097046, 0.2055838406085968, 1.3614697456359863, -0.9362391233444214, -0.5915809273719788, -0.36437517404556274, 0.8477208614349365, 1.0425786972045898, -0.04734991863369942, -0.1330118328332901, 0.27570411562919617, 1.0778611898422241, -0.16837957501411438, -1.1665233373641968, -0.26158958673477173, -0.19739441573619843, -0.12922117114067078, 0.3306702673435211, 1.0169230699539185, -0.9719334840774536, -0.5662937164306641, 0.7614660263061523, -1.3988794088363647, 1.1190804243087769, -0.2217099666595459, -0.2995895445346832, 0.49362099170684814, -0.3425730764865875, 0.6805204153060913, 0.19942393898963928, -0.4443597197532654, 0.1937185674905777, -0.1916777491569519, -0.20232731103897095, 0.10187183320522308, -0.9978469014167786, -0.2492305487394333, 0.6219123005867004, 0.15522119402885437, 0.858711838722229, 0.25102943181991577, 0.08925054967403412, 0.16463005542755127, -0.20484977960586548, 1.6109553575515747, -0.9694976210594177, -0.9235389828681946, 0.09736072272062302, 0.8312496542930603, 0.1444806158542633, -0.35090988874435425, -0.3612452447414398, -0.7930387258529663, -0.7000331282615662, 0.16031748056411743, 1.2139407396316528, -0.012517735362052917, -0.3915030062198639, 0.033025503158569336, 0.26649320125579834, 0.34342819452285767, 0.9025057554244995, -0.5775628089904785, 0.06689860671758652, -0.26460739970207214, -0.8926317095756531, 1.7791588306427002, -1.2722625732421875, 0.6660630106925964, 0.2141568660736084, 0.850074052810669, 0.3925844132900238, 1.2249224185943604, -0.6224081516265869, -0.9263121485710144, 0.8784233331680298, 0.29989269375801086, -0.5997971296310425, 0.2958066165447235, -0.22112439572811127, 0.39486512541770935, -0.22616766393184662, 0.8073816299438477, -0.4436257779598236, 0.33455461263656616, 0.021024996414780617, -0.46660560369491577, 0.8381679058074951, -0.06688548624515533, -0.0035214615054428577, 0.44008129835128784, -0.771193265914917, 0.3249970078468323, 1.6547701358795166, 0.004518182948231697, 0.08414691686630249, -0.30921342968940735, -0.46410778164863586, 1.4996304512023926, -0.6560320258140564, 1.1104011535644531, 0.6019445061683655, 0.11445902287960052, 0.0536169558763504, 0.3887311518192291, -0.3500092327594757, 0.5038953423500061, 1.7225258350372314, 0.4012593626976013, -0.7210777997970581, -1.3390883207321167, 0.42539653182029724, -0.3212466537952423, 0.21492265164852142, 1.3369598388671875, 0.43505221605300903, -0.5631766319274902, -0.4281088411808014, -0.22464153170585632, 0.8844313621520996, -0.751390814781189, 0.2995859980583191, 0.14574263989925385, -0.32091569900512695, 1.1936867237091064, -0.07071901112794876, -0.25549235939979553, 0.5913260579109192, -0.9027697443962097, 0.6080196499824524, 1.1934441328048706, -0.6084413528442383, -0.06162089481949806, 0.2042635679244995, 0.8804677724838257, 0.7046455144882202, -0.47481468319892883, 0.583787739276886, 1.2273653745651245, 0.012604646384716034, 0.5449370741844177, -0.7592152953147888, -0.613824725151062, -0.3235338628292084, -0.4333089292049408, 0.1890420764684677, -0.05110211670398712, -0.713236391544342, -0.7692247629165649, 0.6350910663604736, -1.0791317224502563, 0.7672104835510254, -0.8191571831703186, 0.30686429142951965, -0.6336671710014343, -0.6546317934989929, 1.2564541101455688, 2.281492233276367, -0.3487119972705841, 1.7677415609359741, -2.0130441188812256, -0.7208457589149475, 1.5515365600585938, -0.9449833631515503, 0.005690408870577812, -0.013652141205966473, 0.38013988733291626, 0.793644368648529, 1.1712158918380737, 0.014003039337694645, 0.8155595660209656, 0.8331503868103027, 0.10803478211164474, 0.5465014576911926, 0.23202963173389435, 0.11406462639570236, 0.5466628670692444, 0.7026183605194092, 0.3003798723220825, 0.3540281653404236, -1.1438995599746704, 0.40637651085853577, -0.013959772884845734, 0.018608609214425087, -0.7440204620361328, -0.12146309018135071, 0.2031836062669754, 0.38650307059288025, 1.1321651935577393, 0.7205697894096375, -0.4653255045413971, -0.17666387557983398, -0.8331533670425415, -0.6658475995063782, 0.7338471412658691, -0.6987394690513611, 0.47527775168418884, 0.09309089928865433, -0.0025444820057600737, 1.4681737422943115, 0.5053620934486389, 0.5299301743507385, 0.2727705240249634, 1.0274920463562012, 0.8096523284912109, -0.5127716660499573, -0.9158334732055664, -0.4814324676990509, 1.4542367458343506, 0.20045782625675201, -0.12353789061307907, -0.4604590833187103, 0.14557789266109467, 0.5353489518165588, -1.8154481649398804, 0.6392870545387268, -0.559288740158081, -0.5440959930419922, 0.4651453197002411, -0.03307850658893585, 0.8508439064025879, 0.5550718307495117, 0.2286902219057083, 0.7827453017234802, -0.4136427938938141, 0.26549461483955383, 0.600715696811676, -0.1515059620141983, 0.10820958763360977, -0.37211963534355164, 0.5681353807449341, 0.6138518452644348, 0.566962718963623, 0.39937669038772583, -0.14996524155139923, 0.8093187212944031, 1.1579513549804688, -0.31975531578063965, 0.12900322675704956, 0.5804958343505859, 0.17066217958927155, 0.7865664958953857, 0.043312881141901016, -0.7370157837867737, -0.20772624015808105, -0.4316621720790863, -0.6539459824562073, 0.6665298342704773, -1.0104925632476807, -0.2081490159034729, 0.7986409068107605, -0.18035131692886353, 0.11173446476459503, 1.0292547941207886, -0.33880260586738586, 0.1075887605547905, -0.11085856705904007, -0.3030862510204315, 2.1197800636291504, -0.7699404954910278, 0.22853700816631317, 0.08149458467960358, 0.41224202513694763, 0.32699310779571533, 0.3713603913784027, 0.5502215623855591, 0.021680718287825584, -0.15430258214473724, 0.3283575177192688, -0.8666937947273254, -1.7003579139709473, -0.15851843357086182, 0.2865707576274872, -0.3042660355567932, 0.33095160126686096, -0.28867587447166443, 0.15392708778381348, 0.27902325987815857, -1.436089038848877, 0.5194881558418274, 0.41935163736343384, 0.9938510656356812, 0.6137186288833618, 0.10328205674886703, -0.08840253204107285, 0.20619036257266998, -1.0950634479522705, 0.221910759806633, -0.38984814286231995, -0.8650080561637878, 1.4741867780685425, -0.9657542705535889, 0.26898372173309326, 0.1774367094039917, 1.1726062297821045, 0.1798681914806366, 0.44895634055137634, 0.2488497793674469, 0.1678784042596817, -0.19990047812461853, 1.9059722423553467, -0.18235145509243011, -0.7903227806091309, 0.6212000250816345, 0.686381459236145, 0.5644051432609558, 0.7259414196014404, -0.6954209208488464, -1.41483736038208, -0.038953714072704315, -0.8219765424728394, -0.2612403631210327, -0.6699431538581848, 0.27451762557029724, 0.8212887644767761, -0.4663791358470917, 0.11059831082820892, 0.48219043016433716, 0.5750702023506165, 0.7117615938186646, -0.9155364036560059, -0.029980311170220375, 0.43850961327552795, -0.6866576075553894, -0.25076836347579956, -0.15625274181365967, 0.2269977182149887, 0.5201712846755981, 0.023843925446271896, 0.4950573146343231, 1.1515085697174072, 1.1470271348953247, 0.9930307269096375, -0.5472390651702881, -0.8188649415969849, 1.1538037061691284, 0.6670529246330261, 0.24092958867549896, 0.7819660902023315, -0.2693003714084625, -0.909987211227417, 0.2627231776714325, -1.825286626815796, 0.654744029045105, -0.5184077620506287, -0.015092819929122925, -0.010133283212780952, -0.06401899456977844, 1.62497079372406, 0.8240996599197388, 0.1303505152463913, 1.1651889085769653, -0.23716458678245544, -0.6242572069168091, 0.9489246010780334, -0.49588707089424133, -0.5368606448173523, -0.07363945245742798, 0.22053147852420807, 0.34007108211517334, 0.44688841700553894, 0.05676578730344772, 0.28177571296691895, 0.29380878806114197, 0.5814597010612488, -0.26805365085601807, 0.5537834167480469, -0.09673232585191727, 0.7567762732505798, -0.11158033460378647, -0.0887400209903717, -1.0648088455200195, 0.31590259075164795, -0.06304693222045898, -1.244808316230774, -0.08139760047197342, 0.1531272679567337, 0.054089002311229706, 0.29087552428245544, -0.1365770548582077, 1.440195918083191, 0.532162070274353, -0.2929222881793976, 0.3775133788585663, 0.06099981814622879, -0.1749405562877655, 1.3647242784500122, -0.5563016533851624, 0.3013463020324707, 0.5816868543624878, 0.3841429650783539, 0.6959950923919678, -0.5372591018676758, -0.022954745218157768, -0.16687610745429993, 1.0445873737335205, 0.24282532930374146, -0.6408256888389587, -0.7103231549263, -0.20566554367542267, 0.6211416125297546, -0.05076879635453224, 0.464545339345932, -0.49263322353363037, -0.328588604927063, -0.3601241707801819, -1.0385699272155762, 0.13762636482715607, -0.4392300546169281, 0.03601982444524765, 0.2951424717903137, -0.13344264030456543, 0.08902079612016678, 0.3877662122249603, -0.015037336386740208, 0.11900865286588669, -0.3160170018672943, -0.23723895847797394, 0.31716084480285645, -0.053413670510053635, 0.2070438414812088, 0.16660954058170319, 0.018426045775413513, 0.06312910467386246, -0.01705838181078434, -0.09151820838451385, -0.1135089248418808, 0.28481999039649963, 0.14788243174552917, -0.20387400686740875, -0.030059851706027985, 0.10972849279642105, 0.31863248348236084, 0.16294893622398376, 0.1664319783449173, -0.044952668249607086, -0.11578814685344696, 0.09170914441347122, -0.21215546131134033, -0.2189062386751175, -0.6101231575012207, -0.48357418179512024, 0.6689534783363342, 0.203416109085083, 0.7242025136947632, -0.23119260370731354, -0.3069964647293091, 1.3796340227127075, -1.1329585313796997, 0.5613349676132202, 1.1708577871322632, -0.4163944721221924, 0.19816842675209045, -0.04438617080450058, 0.685565173625946, -0.15805290639400482, 0.010369785130023956, 0.0008001692476682365, 0.2998999059200287, 0.546101450920105, 0.7387497425079346, -0.5361159443855286, -0.087928906083107, 0.0006104949279688299, 1.05718994140625, -0.010101722553372383, 1.0318044424057007, -1.276886224746704, -0.3784831464290619, 0.19144834578037262, -0.4305274784564972, 1.480886459350586, -1.0064826011657715, -0.39506858587265015, 0.17833715677261353, -0.47720110416412354, 1.1428204774856567, 0.66016685962677, -0.5339651703834534, -0.12212635576725006, -0.7057979702949524, -0.40447258949279785, 1.2685693502426147, -0.7513035535812378, -0.4276813566684723, -0.7068505883216858, -0.10099925100803375, 0.10988262295722961, 0.560075581073761, -0.5393589735031128, -0.3811979293823242, 0.721433699131012, 0.6010150909423828, -1.5504488945007324, -0.55565345287323, 0.20683009922504425, -0.5200256109237671, -0.19840797781944275, -0.23275530338287354, -0.1196531429886818, -0.7169081568717957, -0.0916966125369072, -1.3041441440582275, 1.581480622291565, -0.5687289237976074, 0.5568123459815979, 0.8813387751579285, -0.20310549437999725, 0.5727681517601013, 0.22729501128196716, -0.10150539875030518, -0.747519850730896, -1.5582484006881714, -0.08531936258077621, 1.4298659563064575, -0.9542587995529175, -0.24522577226161957, 0.3008752465248108, 0.3734375834465027, 1.1878440380096436, 0.05483758822083473, -0.43131139874458313, 0.926383376121521, 0.15985697507858276, 2.499938488006592, -1.3618098497390747, 0.9239234924316406, 0.4212547838687897, 0.42958635091781616, -0.3190501034259796, 0.1486321985721588, -0.7277942299842834, -1.6820917129516602, -0.030680367723107338, -1.5217543840408325, 1.0205764770507812, -0.09220818430185318, -0.7406934499740601, 0.0056580668315291405, -0.3138844966888428, 0.6255605220794678, 1.4103575944900513, -0.805671215057373, -0.015760719776153564, -0.34269070625305176, -1.3807809352874756, 0.4767001271247864, -0.13244161009788513, 0.30327773094177246, 0.0850011557340622, -0.31769421696662903, 0.361306369304657, 0.8409382104873657, -0.28138211369514465, 0.1289101541042328, 1.0039558410644531, 1.1199958324432373, -0.615071177482605, -0.9589197039604187, -0.15100382268428802, -0.05531899258494377, 0.3062906563282013, 0.7575874924659729, 0.22612442076206207, -0.4573184549808502, -0.3745589256286621, -0.1225079745054245, 0.851139485836029, 0.3448338210582733, -0.37651294469833374, -0.879367470741272, 0.04332105070352554, -0.044299349188804626, 0.29785266518592834, -0.6740931272506714, 0.6292250156402588, -0.45103853940963745, -0.9346718192100525, 0.8502088189125061, -1.245945692062378, 0.21023546159267426, -0.019649295136332512, 0.5773297548294067, 0.1245235949754715, 0.6059521436691284, 0.11603979021310806, 0.6883378028869629, 0.13238544762134552, 0.18656787276268005, -1.8565751314163208, -1.1272103786468506, 0.5671160817146301, 1.4788119792938232, 0.375335156917572, 0.3755452334880829, 0.28145742416381836, -0.9379237294197083, 0.16652026772499084, -0.1204833909869194, 1.0046305656433105, 0.015720274299383163, -0.11909089982509613, 0.9861360192298889, -0.5341314077377319, 0.3448852002620697, 0.6894081234931946, -0.816882848739624, -0.14284077286720276, -1.0150585174560547, 0.27679166197776794, 1.0033624172210693, -0.5911245942115784, 0.08489367365837097, 1.266879677772522, -0.255844384431839, 0.6733012795448303, 0.684779167175293, 0.5617191791534424, 0.7755767703056335, 2.2061285972595215, 0.09441764652729034, -1.2779896259307861, -1.1511454582214355, 0.5693484544754028, 0.2994248569011688, -0.31215864419937134, 0.18979834020137787, -0.4791470170021057, -0.5746148824691772, -0.3463926911354065, -0.12074550986289978, 0.785714864730835, -0.7805435061454773, 0.009939372539520264, -0.09633108973503113, -0.2647104859352112, -0.08746733516454697, 0.29154837131500244, -0.0870630070567131, 0.32029852271080017, -1.008959174156189, -0.8071077466011047, 0.8438883423805237, -1.741565227508545, -0.04037042334675789, -0.094101682305336, 0.6292474865913391, 0.2597886621952057, -0.6743157505989075, 0.4668590724468231, 0.7584879994392395, 0.4015308916568756, 0.6223133206367493, -1.3841357231140137, -0.9793296456336975, 0.10180506855249405, -0.06274540722370148, 0.33145013451576233, 0.21290156245231628, -0.5786533951759338, -0.5076733231544495, -1.0200380086898804, -0.41315731406211853, 0.2315242439508438, 0.052566371858119965, -0.9065240025520325, 0.4156121611595154, -0.32614293694496155, 0.12744905054569244, 1.2038588523864746, -0.44544580578804016, 0.293064147233963, -0.7939343452453613, -0.30607640743255615, 0.7865676283836365, -0.43239593505859375, 0.4720669090747833, -0.46688371896743774, -0.1895478069782257, 0.5972427725791931, 0.3398219645023346, 0.23471933603286743, 0.2397194355726242, 0.8188143968582153, 0.6578630208969116, 0.10304033011198044, -0.8083931803703308, 0.3764016032218933, -0.34679266810417175, 1.4256396293640137, -0.04567849263548851, 0.2425929754972458, -0.5459653735160828, 0.4632209539413452, -0.5202457308769226, 1.116380214691162, -0.3531627953052521, 0.757438600063324, 0.1638927310705185, 0.5104148387908936, -0.2045164555311203, 0.8929814100265503, -0.9040396213531494, 0.27458927035331726, -0.939011812210083, 0.14792656898498535, 1.152504563331604, -1.039692997932434, -0.8242083191871643, -0.8480315208435059, 0.8359276056289673, -0.26638278365135193, 0.5695039629936218, -0.6481336951255798, 0.10092880576848984, -0.5187588930130005, 0.6221426129341125, -0.591831386089325, -0.025127453729510307, 0.6545872092247009, 0.6931430101394653, -0.4591080844402313, 0.20450375974178314, 0.08047422766685486, -1.079514741897583, -0.033060960471630096, 0.02329319342970848, 1.522902250289917, -0.9913118481636047, -1.1536169052124023, -0.006923360750079155, -0.7545766234397888, 0.3494237959384918, 1.398964285850525, -1.0350221395492554, -0.042258236557245255, -0.4580778479576111, 0.8179446458816528, 1.2148003578186035, -0.30147862434387207, -0.1829793006181717, 0.4938138723373413, 0.9068519473075867, 0.7040397524833679, 0.893436074256897, -0.7260310053825378, 0.3336082100868225, 0.430538535118103, 0.6659964919090271, 0.3276475667953491, -2.1196448802948, -0.5154710412025452, 1.0439263582229614, 0.9521281719207764, 0.3527415990829468, 0.015191035345196724, -1.7653099298477173, 0.2147001475095749, 0.27891942858695984, 0.4341852366924286, -0.711830735206604, 0.04081080108880997, 1.1241151094436646, -0.24994461238384247, -0.2017337679862976, -0.09995435923337936, 0.015065905638039112, 1.1874877214431763, -1.7569032907485962, -0.12039734423160553, 0.44234707951545715, -0.5461174249649048, -0.14605316519737244, -0.4557255506515503, 0.6581962704658508, 0.12146200239658356, -0.3507908284664154, 1.12997567653656, -0.2166147530078888, 0.2533283531665802, 1.68726646900177, -1.5337342023849487, 0.14169448614120483, 0.2879941463470459, 1.096609115600586, -0.5015383362770081, 1.082518458366394, -1.6074728965759277, -0.9251177906990051, -0.4747487008571625, -0.10625874996185303, 0.9199007153511047, 0.10309586673974991, -0.42129752039909363, 0.0863252654671669, -0.06597847491502762, 0.323076456785202, 0.05765435844659805, -1.679076910018921, 1.1728813648223877, 0.12841233611106873, -1.1413973569869995, 1.28829026222229, 0.07933882623910904, -0.6715635657310486, -1.0838432312011719, 1.3417450189590454, 0.2066679447889328, -0.38160407543182373, -1.1299599409103394, 0.01923924870789051, 2.0178050994873047, 0.4587033987045288, -0.880158543586731, -2.1963424682617188, 0.25230884552001953, 0.8380306363105774, -0.6194505095481873, 0.0365266278386116, -1.1047130823135376, 0.672292172908783, -0.3131871223449707, -0.5542443990707397, 0.8688533902168274, 0.10892973840236664, -0.09595208615064621, -0.44479304552078247, 0.01603645272552967, 0.5238967537879944, 0.17399173974990845, -0.8616107106208801, 0.16945408284664154, -0.5565822124481201, -0.11780643463134766, 0.6867806315422058, -0.7295464873313904, 0.6582701802253723, 0.11551295965909958, 1.1831133365631104, 0.729871928691864, -0.4118824303150177, -0.30018195509910583, 0.33248117566108704, 0.25098156929016113, 0.5957571864128113, 0.1336744874715805, -0.6238387227058411, 0.25641778111457825, 0.9788464903831482, 1.008695363998413, -0.09033924341201782, 0.7547734379768372, -0.7863990664482117, 0.5041757822036743, -1.0043106079101562, 1.1201372146606445, -0.31562569737434387, 0.014101789332926273, 0.4352792203426361, 0.1775287389755249, 0.20402204990386963, 1.0382195711135864, -1.242664098739624, 1.2899671792984009, -0.87693190574646, -1.3937695026397705, 1.2012051343917847, -1.2850422859191895, -0.2658596634864807, -0.24318060278892517, -0.21948806941509247, 0.6069090366363525, 0.5168060660362244, -0.3471842110157013, 0.3072676360607147, 0.967108428478241, -0.23334205150604248, -0.6733320951461792, -0.0753953605890274, 0.49951279163360596, -0.026493290439248085, -0.29830536246299744, -0.06686478853225708, -0.13558271527290344, -0.5819234848022461, -0.5423492193222046, 0.21876932680606842, 0.9074986577033997, 0.19330726563930511, -0.882308304309845, 0.20685537159442902, 0.2328777313232422, 0.7402613759040833, 0.2296796292066574, -0.9378571510314941, 1.3810514211654663, -0.8825836777687073, -1.0130316019058228, 0.657819926738739, -0.7369106411933899, 0.31660744547843933, 0.7914129495620728, 0.9974428415298462, 0.24723829329013824, 1.1727714538574219, 0.05773789808154106, -0.08592882007360458, 0.2955566942691803, 1.1888381242752075, -1.9121930599212646, 0.7248694896697998, 0.14129303395748138, 0.09653771668672562, -0.02215372584760189, 0.24209773540496826, -0.06414776295423508, -0.45643824338912964, -0.4340894818305969, 0.18513521552085876, 0.34519144892692566, -1.0361640453338623, -0.6459007263183594, 0.8349420428276062, 0.24851250648498535, 0.30219727754592896, 1.0421582460403442, 0.11762449890375137, 1.0514326095581055, -0.6576474905014038, 0.11188028752803802, 0.21501240134239197, 0.029357237741351128, -0.7821909785270691, -0.10495954006910324, -0.037926577031612396, 0.5145177841186523, 0.3866916000843048, -0.37181320786476135, 0.39225971698760986, 1.0287724733352661, -0.17049871385097504, -0.6611348986625671, 0.3091004490852356, -0.1808798760175705, 0.36695602536201477, 0.14837674796581268, 0.4185359477996826, -0.17227701842784882, -0.10372012853622437, 0.6469448208808899, -1.9556690454483032, 0.5333583950996399, -0.44489172101020813, 0.29942163825035095, 0.7326557040214539, 0.13929347693920135, 0.8170181512832642, 1.420540452003479, -0.40021058917045593, 1.6618317365646362, 0.01541407685726881, -0.26936566829681396, 0.4109227657318115, -1.0775017738342285, 0.30102983117103577, 0.32166212797164917, 0.7017878890037537, 0.5255417227745056, 0.27710869908332825, 0.3277575373649597, 0.18264086544513702, 0.039700064808130264, 0.8600422143936157, -0.32369258999824524, -0.10734812915325165, 0.8818883299827576, 0.48294827342033386, 0.5013313293457031, -0.2977331280708313, -0.7856916189193726, 0.1564011573791504, 0.37346047163009644, -1.8303943872451782, 0.741219699382782, 0.07551008462905884, -0.30730774998664856, 0.20291252434253693, -0.35770782828330994, 0.7854425311088562, -0.03071385622024536, -0.695227324962616, 0.6926226615905762, -1.0076371431350708, -0.7392191886901855, 0.05941947549581528, -0.48996272683143616, -0.126567542552948, -0.3521508276462555, 0.7749046087265015, 1.8364723920822144, 0.6422757506370544, 0.05532215163111687, -0.019730661064386368, 0.8077270984649658, 1.119845986366272, -0.6653274893760681, -0.9266059994697571, 0.2259620726108551, -0.4448140561580658, 0.1872219294309616, 0.6115213632583618, -0.7900042533874512, -0.4843981862068176, -0.7250685691833496, -0.21664497256278992, 1.0809606313705444, -0.6480997800827026, 0.015839505940675735, -0.43375706672668457, 0.16060076653957367, 0.34942373633384705, 0.3750011920928955, -0.5308589339256287, -0.47519153356552124, -1.2216768264770508, -0.9088805913925171, 0.04123370349407196, -1.1142935752868652, 0.2544734477996826, -1.002601981163025, 1.5070135593414307, 0.18750254809856415, -0.07021584361791611, 0.3455626964569092, -0.13130046427249908, 0.7246699333190918, 0.623863697052002, -1.25762140750885, 0.581950306892395, 0.4642966389656067, 0.2914867103099823, 0.824571430683136, 1.2279298305511475, -0.7320796847343445, -0.30876585841178894, -0.37508997321128845, -1.1978349685668945, 0.4437333941459656, -1.1554864645004272, -0.11900945752859116, 0.33655014634132385, -0.5220083594322205, 0.7277478575706482, 0.25663381814956665, -0.8685930371284485, 0.002866598078981042, -0.8131191730499268, 0.8196035027503967, 0.26595067977905273, -1.2760885953903198, -0.5186965465545654, -0.2867453098297119, -0.09001287817955017, 0.09400957822799683, 0.7198790907859802, 0.5161786675453186, -0.516550600528717, 0.8438129425048828, 1.4251744747161865, -0.24759146571159363, -0.09520790725946426, 0.4374547004699707, -0.2823670208454132, 0.473037987947464, 0.6993472576141357, -0.796768844127655, -0.7198928594589233, 0.15910321474075317, -1.4883430004119873, -0.47967928647994995, -0.8240062594413757, -0.7801299691200256, 0.8068945407867432, -0.30039262771606445, 0.5711228847503662, 1.8272291421890259, -0.8208651542663574, 1.5181599855422974, -0.05251277983188629, 0.030700761824846268, 1.1637645959854126, 0.15400628745555878, 0.06176392361521721, 0.5874358415603638, 0.1643916219472885, 0.01894412748515606, 0.45705097913742065, -0.03087984025478363, 0.40878012776374817, 1.2434853315353394, 0.539618730545044, -0.6274430751800537, -0.8276445865631104, -0.09984764456748962, 0.17553459107875824, 0.27603718638420105, 0.2738381326198578, 0.22372862696647644, -0.6746336221694946, 0.4499436020851135, -0.006551758386194706, 0.42439067363739014, -0.03159983456134796, 0.08669569343328476, 0.35077178478240967, -0.09840518236160278, 0.9929503202438354, 0.7055090069770813, -0.1599694788455963, 1.0239168405532837, -0.18195600807666779, -0.06319521367549896, 0.5234115123748779, -1.162221908569336, -0.291095107793808, -0.34944280982017517, 0.42885124683380127, 0.3637073040008545, 0.4392504096031189, 0.5386402010917664, 0.5822131037712097, -0.35379210114479065, 0.46870994567871094, -0.039486370980739594, -1.0990079641342163, 0.818699300289154, 0.5059167742729187, 0.4608994722366333, 0.054882291704416275, -0.9026063680648804, 0.5485851168632507, 0.025582822039723396, -1.4928069114685059, 0.27499324083328247, -1.9630047082901, -0.5378304719924927, 0.18534430861473083, -0.39275723695755005, 0.49001190066337585, 2.7195372581481934, -0.18226313591003418, 1.0758594274520874, -0.02806028351187706, -0.11212685704231262, -0.1478293538093567, -0.65214604139328, -0.46908119320869446, -1.1846047639846802, 0.3762453496456146, 1.577810287475586, 0.19964417815208435, 0.5914688110351562, -0.307187020778656, -0.10668576508760452, -0.5143102407455444, -0.4120229482650757, -0.30074676871299744, 0.7149632573127747, 0.9276192784309387, -0.04405643045902252, 0.8031682968139648, -0.7468567490577698, -1.1996557712554932, -0.26482945680618286, -0.7510975003242493, 0.6790359616279602, 0.07567739486694336, -0.158123180270195, 0.2978544235229492, -0.07557512819766998, 1.207843542098999, 0.5308043360710144, 0.3301546573638916, 1.1778205633163452, -1.227868676185608, -0.1787164956331253, 0.6304728984832764, -0.9171680212020874, -0.13344094157218933, -0.2357221245765686, -0.044889211654663086, 0.04450742155313492, 0.13889333605766296, 0.060870274901390076, 0.05536985397338867, 1.1005150079727173, 0.3218662142753601, 0.43907079100608826, -0.027295101433992386, 0.045652978122234344, -0.11712590605020523, 0.3804996907711029, -0.17734579741954803, 0.07042939960956573, -0.9833468794822693, -0.3533858358860016, -2.5022993087768555, 1.2073580026626587, 0.29537034034729004, 0.8934307098388672, 0.2822824716567993, 0.8888433575630188, 0.852966845035553, 1.4361023902893066, 0.08617085218429565, 1.764824628829956, -1.5732438564300537, -0.412211149930954, 0.47681236267089844, -0.33550581336021423, 0.46968281269073486, -0.16631069779396057, 1.176335096359253, 0.9971413612365723, 0.8192384243011475, 0.2864496409893036, -0.46595078706741333, 0.6088850498199463, -0.275197297334671, -0.14999137818813324, 0.47140854597091675, -0.2346687614917755, 0.7919781804084778, -0.04570208489894867, 1.6290451288223267, 0.30624279379844666, -0.5507348775863647, -0.5265469551086426, -1.7503341436386108], "bias": [0.02057979442179203, -0.3069871962070465, -0.0003441107692196965, 0.036857858300209045, -0.07799828052520752, -0.16669446229934692, -0.05558767914772034, -0.21128635108470917, -0.22798722982406616, -0.3443543314933777, -0.19601649045944214, -0.13745827972888947, -0.13551947474479675, -0.40527257323265076, -0.15542368590831757, -0.19856281578540802, -0.23167718946933746, 0.03126590698957443, -0.4025586247444153, 0.08606908470392227, -0.15089665353298187, -0.30596330761909485, 2.658452033996582, -0.25192317366600037, -0.15241394937038422, -0.1440298855304718, -0.154004767537117, 0.19083352386951447, -0.18362997472286224, 0.047811709344387054, -0.23395004868507385, -0.01247438509017229, 0.13692311942577362, -0.2503577768802643, -0.12500496208667755, 0.4618108570575714, 0.4285486936569214, -0.2303314059972763, 1.4909921884536743, 0.141100212931633, -0.33529412746429443, -0.07761702686548233, -0.12671610713005066, -0.09531430155038834, -0.12499963492155075, 0.07817723602056503, -0.06964477896690369, -0.03951634094119072, -0.11212071776390076, 0.08285560458898544, -0.22386528551578522, -0.04649404063820839, 0.002549742581322789, -0.21116706728935242, -0.19780293107032776, 0.044704969972372055, 0.09059809893369675, -0.1522924304008484, -0.2768431305885315, -0.27367526292800903, -0.14160946011543274, -0.2608383893966675, 0.20032039284706116, -0.1318720281124115]}}, "fc": {"weight": [0.499933660030365, 0.6462400555610657, 0.35844686627388, -0.21092814207077026, 0.059317804872989655, 0.27250081300735474, -0.1576547920703888, 0.10006479173898697, 0.6427354216575623, -0.2971936762332916, -0.41237008571624756, 0.5107361674308777, 0.16904276609420776, -0.7441116571426392, -0.3361912965774536, -0.5169211626052856, 0.5309817790985107, 0.45216983556747437, -0.11266439408063889, 0.15611544251441956, -0.0929114893078804, 0.258347749710083, -1.0180854797363281, -0.1477084904909134, -0.9986284971237183, -0.004834271501749754, -0.16760708391666412, -0.19773875176906586, 0.5162063241004944, 0.24926811456680298, 0.6972099542617798, -1.5020482540130615, 0.6749058365821838, 0.44051289558410645, -0.19235947728157043, 0.3793911933898926, -1.2775906324386597, -0.9149205088615417, -0.7075871825218201, 0.3020269274711609, 0.023092759773135185, 0.26813220977783203, 0.18437007069587708, 0.418969064950943, 0.09442558884620667, -0.8444923758506775, 0.5787031650543213, 0.35684698820114136, -0.003284851787611842, 0.3722395896911621, 0.009777352213859558, 0.28076815605163574, 0.5814012289047241, 0.5877604484558105, -0.38253727555274963, -0.38899049162864685, -0.14654645323753357, -0.1425686627626419, -0.4013083577156067, -0.15500396490097046, -0.27596554160118103, -0.8639930486679077, 0.30126696825027466, -0.12446503341197968, 0.24908731877803802, -0.8471977710723877, -0.3411552608013153, 1.2127346992492676, 0.2737713158130646, -0.21014852821826935, -0.30142122507095337, -0.8705539107322693, 0.6357449889183044, -0.2838335335254669, 0.03808894008398056, -0.17400439083576202, -1.1890294551849365, 0.18962669372558594, -0.19590060412883759, 0.5684880018234253, -0.06505171954631805, 0.2675477862358093, 0.23285456001758575, 0.4897727370262146, -0.10436031967401505, -1.4096934795379639, 2.7671051025390625, -0.4662667512893677, 0.6492728590965271, 0.4358174502849579, -1.4460899829864502, 0.28288164734840393, 0.5613288879394531, 0.2649763524532318, -0.8119804263114929, 0.5096588730812073, 0.46662256121635437, 0.5249754190444946, -0.5625028014183044, -0.679546594619751, -0.020390082150697708, -0.12906204164028168, 1.7156803607940674, 0.5799226760864258, -0.7451770305633545, -0.3100375533103943, -0.1848972588777542, -0.4150610864162445, 0.4417864680290222, 0.38947170972824097, 0.16274939477443695, -0.02803165465593338, -0.9250892400741577, -0.5888775587081909, -0.5868220329284668, -0.8472663760185242, 0.3206111490726471, -0.2618711590766907, -0.4704234302043915, 0.2103545069694519, 0.34398162364959717, -0.6740576028823853, 0.04841291904449463, 0.3644755184650421, 0.4204721450805664, 0.23558422923088074, -0.9299560189247131, -0.7349858283996582, 0.6290162801742554, 0.22749513387680054, -0.07296352833509445, -0.37288475036621094, -0.03808877617120743, 0.29045841097831726, 0.03618193790316582, -0.15532147884368896, -0.060980163514614105, -0.34947341680526733, -0.49789002537727356, 0.36346516013145447, 0.29080212116241455, -0.05996331572532654, 0.3583891987800598, 0.4339353144168854, -0.3320519030094147, -0.38470056653022766, -0.7187795639038086, -0.3721018135547638, -0.1649002879858017, 0.2747286856174469, -0.33279135823249817, 0.35285863280296326, 0.20206007361412048, -0.2523598372936249, 0.42597275972366333, 0.690336287021637, -0.1154596284031868, 0.01312443520873785, -0.5960437059402466, 0.5107436180114746, 0.2219899296760559, 0.422425240278244, 0.11424700170755386, 0.6660617589950562, -0.07334500551223755, 0.5210803151130676, -0.07127809524536133, -0.9765481352806091, 0.3525253236293793, -0.29231417179107666, -0.27670544385910034, 0.5152838826179504, -0.5188544988632202, 0.2075912207365036, -0.06974237412214279, 0.021950174123048782, 0.6144199371337891, -0.7491617798805237, -0.15378549695014954, -0.174729585647583, -0.030440136790275574, 0.44218936562538147, -0.8953315019607544, 0.24542264640331268, -0.4122815430164337, 0.7513859868049622, 0.45418673753738403, 0.1786867082118988, 0.09199264645576477, 0.4045487642288208, 0.48152557015419006, 0.6614072918891907, -0.332714319229126, 0.11341272294521332, 0.34642425179481506, -0.3302912712097168, -0.0998956635594368, 0.08181945979595184, -0.4300883710384369, -0.25899738073349, -0.8818305134773254, 0.6881996989250183, 0.41309064626693726, -0.2170613408088684, -0.08482144773006439, 0.04916071519255638, 0.029517654329538345, -0.981428325176239, -0.15831710398197174, 0.16843833029270172, 0.10797062516212463, -0.6924275755882263, 0.9563352465629578, -0.3880845308303833, -1.346543312072754, 0.0706295296549797, 0.5354847311973572, -0.045821528881788254, 0.636420488357544, 0.13805918395519257, -0.9721842408180237, 0.24959048628807068, 0.6258628964424133, 1.2847120761871338, -0.3193472623825073, 0.1501924693584442, 0.21386827528476715, 0.4324330687522888, -0.3404809534549713, 0.4746495187282562, -0.8184359073638916, -0.6149311661720276, -0.04021010175347328, -0.14138208329677582, -0.48744574189186096, 0.46272480487823486, -0.43845123052597046, -1.2312378883361816, -0.6193902492523193, 0.2711917757987976, -0.0598909966647625, -0.7411363124847412, 0.7371710538864136, -0.07050488144159317, -0.7556166648864746, 0.32851743698120117, 0.3235473036766052, -1.1556282043457031, 0.09172972291707993, 0.5732586979866028, 0.5259556174278259, -0.633617639541626, -0.508630633354187, 0.7811421751976013, -0.03432757034897804, 0.12730269134044647, -0.3890094459056854, -0.8203369975090027, -0.7901262044906616, 0.5111871957778931, 0.48626047372817993, -0.35477393865585327, 0.04650021344423294, 0.6623551249504089, 0.09232094138860703, -0.787918210029602, -0.3562796115875244, 0.2894231379032135, 0.6804035902023315, -0.15509569644927979, -0.5841468572616577, 0.3236275017261505, 0.10249332338571548, -0.281055212020874, 0.7870014309883118, 0.005090926308184862, -0.005417480133473873, 0.12512217462062836, -1.6665620803833008, 0.39189425110816956, 0.30968809127807617, 0.00617439579218626, -0.8331025242805481, 0.05659075081348419, 0.3191816210746765, 0.9470592141151428, -0.6981405019760132, 0.2795952260494232, 0.2044588029384613, -0.8006271123886108, 0.46684762835502625, -1.2510980367660522, 0.5840344429016113, 0.050551239401102066, -0.7113223075866699, 0.0927501916885376, -0.7615060210227966, 0.20519821345806122, 0.03484582155942917, -0.30859920382499695, 0.5536376237869263, 0.8465917110443115, -0.5611915588378906, 0.2982110381126404, -0.11733753979206085, 0.5196618437767029, -0.08391278237104416, 0.3819553256034851, 0.1445404291152954, -0.12426384538412094, 0.19704759120941162, 0.2258060723543167, 0.6973751783370972, -0.3415291905403137, -0.11768744885921478, 0.2412327229976654, -0.017254702746868134, 0.022257931530475616, 0.15358419716358185, 0.47374239563941956, 0.6090737581253052, 0.4069640636444092, 0.5381327867507935, -0.2148902714252472, -1.4197018146514893, -0.6215834617614746, 0.8807893395423889, 0.06938234716653824, -0.6517244577407837, 0.3056410551071167, 0.6541998386383057, -0.594508945941925, 0.44448181986808777, 0.7649173736572266, -0.28257179260253906, 0.060279518365859985, -0.051041193306446075, 0.20220251381397247, 0.2575399875640869, 0.429914265871048, -0.10873711109161377, 0.36297115683555603, -0.3071374297142029, 0.14563895761966705, -1.2047957181930542, 0.10238520801067352, 0.2588059604167938, -0.6489061117172241, -0.10256578773260117, -0.7517796754837036, 0.5790793299674988, 0.4029484987258911, -1.008878231048584, 0.4143518805503845, -0.32262980937957764, -0.644690990447998, -0.00704562570899725, 0.2108595371246338, -0.13308219611644745, -0.15838126838207245, 0.5659347176551819, -0.2684045433998108, 0.13828110694885254, 0.012663669884204865, 0.3569936156272888, -0.11898807436227798, 0.06151400879025459, -1.027609944343567, -0.12418521195650101, 0.14858780801296234, 0.48467355966567993, -0.17031779885292053, -0.624897301197052, 0.15250733494758606, 0.3024374544620514, 0.420662522315979, 0.38043734431266785, 0.04261274263262749, 0.31778377294540405, -0.5412738919258118, 0.4547821879386902, 0.3565337061882019, -0.2735249698162079, -0.0424564965069294, 0.6143233776092529, -0.8760663866996765, 0.202810600399971, 0.3409634232521057, -0.8852136135101318, -0.5686386227607727, 0.24874408543109894, 0.6012251377105713, 0.22081193327903748, 0.43316593766212463, -0.6132748126983643, -0.4507729709148407, 0.3975699543952942, 0.6523099541664124, 1.256067156791687, -0.392671138048172, 0.5800906419754028, -0.15025824308395386, 0.4809888005256653, 0.24325448274612427, -0.08252342790365219, 0.6708270311355591, 0.6157534122467041, -0.8046265244483948, -0.12395551055669785, 0.51905357837677, 0.41276687383651733, -0.012387624941766262, 0.4362538456916809, 0.08211106061935425, 0.35313722491264343, -1.2812319993972778, -0.2689257860183716, 0.19160813093185425, -0.7411755919456482, 0.2441193163394928, -0.2635088562965393, -1.1527200937271118, 0.24814777076244354, 0.48186051845550537, 0.06574694067239761, -0.25108715891838074, 0.3588988184928894, -0.5201417803764343, 0.21728910505771637, 0.5249428749084473, 0.14887391030788422, -0.36596864461898804, 0.49219807982444763, 0.19806939363479614, -0.03276863694190979, 0.17180167138576508, 0.5140567421913147, -0.6207159161567688, -0.555073082447052, 0.13177120685577393, -2.1222803592681885, -0.0011708332458510995, -0.5679771304130554, -0.3560316860675812, 0.05650816857814789, -0.6738525629043579, -0.20089443027973175, 0.20755212008953094, -0.24022342264652252, 1.0836834907531738, -0.09617028385400772, -0.7872593402862549, 0.4272453188896179, 0.0915815606713295, -0.20731320977210999, -0.04115515574812889, 0.3356713056564331, -0.1456121802330017, 0.19953063130378723, 0.08320978283882141, -0.7486628293991089, -0.31893235445022583, 0.17458146810531616, 0.6079270243644714, -1.2505640983581543, -0.0030987842474132776, -0.3407480716705322, -0.14616306126117706, 0.15884581208229065, -1.1867680549621582, 0.5033355355262756, -0.4179226756095886, 0.4453886151313782, -0.08200076967477798, 0.2786487340927124, 0.39622312784194946, -0.0315876305103302, -0.7993202805519104, -0.8451926708221436, 0.5598573088645935, -0.14809347689151764, -0.6721507906913757, 0.5347191691398621, 0.3052721321582794, 0.6549847722053528, 0.2095155417919159, 0.23910589516162872, 0.09705943614244461, 0.08159928768873215, -0.20827458798885345, -0.21013711392879486, 0.33351930975914, -0.13393673300743103, 0.16080352663993835, 0.1235290914773941, 0.06683406978845596, -0.9908031225204468, 0.782004177570343, -0.7529598474502563, -0.4603491425514221, 0.4169595241546631, -0.03371284529566765, 0.7330809235572815, 0.3093583881855011, 0.573970377445221, 0.26383206248283386, 0.48009559512138367, 0.38523709774017334, -0.15517757833003998, 0.29432886838912964, 0.4047378897666931, -0.38236480951309204, -0.5424724817276001, 0.15072505176067352, 0.13255763053894043, -0.4311876595020294, 0.41191181540489197, 0.9449229836463928, 0.19868430495262146, 0.3621978759765625, -0.2970430552959442, 0.38853922486305237, -0.09553667902946472, -0.02440163493156433, 0.1616445630788803, 0.11670476198196411, -0.46067529916763306, -0.276350200176239, 0.26623257994651794, -0.2577499747276306, -0.16628427803516388, 0.2283507138490677, -0.3106720447540283, 0.7428895831108093, 0.07631663233041763, 0.5056228637695312, 0.1198754608631134, 0.2472934126853943, 0.4080762267112732, -0.3158023953437805, -0.3790460526943207, -0.47817206382751465, 0.3868827521800995, -0.49180492758750916, -0.48658084869384766, -0.41600343585014343, -0.04028073698282242, 0.13595038652420044, -0.09853749722242355, 0.31870734691619873, -0.040834859013557434, 0.08000589162111282, 0.19464944303035736, 0.9175262451171875, 0.12375496327877045, -0.17320919036865234, -0.3596693277359009, 0.11375182121992111, -0.08383026719093323, 0.17498014867305756, 0.6690176725387573, 0.3678348660469055, 0.6945675015449524, 0.36547327041625977, -0.38800176978111267, -0.5128424763679504, -0.28915029764175415, -0.1773567646741867, 0.4267767667770386, -0.16807188093662262, -0.3784804940223694, 0.4053763449192047, 0.22356340289115906, -0.3821278214454651, -0.22741356492042542, 0.5746394395828247, -1.0358718633651733, -0.13322566449642181, -0.0962231382727623, 0.10094188153743744, 0.9636891484260559, 0.10205124318599701, -0.07679685950279236, -0.3361300230026245, 0.15773317217826843, -0.1355494260787964, 0.29314133524894714, 0.4308372437953949, 0.39362674951553345, -0.04799368977546692, 0.27668434381484985, 0.07534778863191605, 0.2222403883934021, 0.19620481133460999, -0.28316158056259155, -0.4131792485713959, -0.0034018198493868113, 0.5509313344955444, 0.5580490231513977, 0.28674203157424927, -0.23033389449119568, -0.8490296602249146, 0.370168000459671, -0.16962917149066925, -0.05084793269634247, -0.07852241396903992, 0.13254040479660034, -0.19362643361091614, 0.18883347511291504, -0.2135675549507141, 0.39511582255363464, 0.4912821650505066, 0.488461971282959, 0.33676761388778687, 0.29764583706855774, 0.011144223622977734, 0.49311551451683044, 0.001806638203561306, 0.34352412819862366, -0.18784885108470917, -0.5433750152587891, -0.06713532656431198, 0.02079831436276436, 0.5027123689651489, 0.2613339126110077, -0.24817022681236267, -0.18769043684005737, 0.6412383317947388, 0.07318942993879318, -0.018161077052354813, 0.7552199363708496, 0.055416908115148544, 0.1570858210325241, -0.38669562339782715, -0.42889827489852905, 0.1434514969587326, -0.12228038907051086, -0.039235398173332214, 0.22736014425754547, -0.659268319606781], "bias": [4.267677307128906, -1.2345629930496216, -0.46309971809387207, -1.0583946704864502, 1.1256664991378784, -0.44307586550712585, 0.9275874495506287, -0.763161301612854, -1.4706321954727173, -0.9281054735183716]}}]